svm_type c_svc
kernel_type linear
nr_class 2
total_sv 48
rho -1.74622
label 1 -1
probA -1.57795
probB -0.297343
nr_sv 25 23
SV
10 1:0.027405025 2:0 3:0 4:0 5:0.00026966119 6:0.16464707 7:0.034129824 8:0 9:0 10:0 11:0 12:0 13:0.4 14:0 15:0.25 16:0.038461538 17:0.0026462027 
3.655459318408766 1:0.011862249 2:0 3:0 4:0 5:0.0016072706 6:0.38702752 7:0.37542601 8:0.047685835 9:0 10:0 11:0 12:0 13:0.2 14:0.41176471 15:0 16:0.34615385 17:0.010849431 
10 1:0.21325862 2:0.84855422 3:0 4:0 5:0.0036768046 6:0.57483851 7:1 8:0.68723703 9:0 10:0 11:0 12:0 13:0 14:0.41176471 15:0 16:0.5 17:0.025932786 
6.787390453641287 1:0.074307643 2:0 3:0 4:0 5:0.0022578731 6:0.40555994 7:0.014627025 8:0.54230856 9:0 10:0 11:0 12:0 13:0.8 14:0.11764706 15:0 16:0.26923077 17:0.0018523419 
10 1:0.011915212 2:0 3:0 4:0 5:0.00018833523 6:0.090876628 7:0.073135127 8:0 9:0 10:0 11:0 12:0 13:0 14:0 15:0.5 16:0.076923077 17:0.0044985446 
10 1:0.082016401 2:0 3:0 4:0 5:0.0020181829 6:0.1703492 7:0.32374581 8:0.26367461 9:0 10:0 11:0 12:0 13:0 14:0 15:0 16:0.11538462 17:0.0021169622 
3.966652737924189 1:0.048081318 2:0 3:0 4:0 5:0.0021679861 6:0.17355661 7:0.012676746 8:0.33239832 9:0 10:0 11:0 12:0 13:0.4 14:0.94117647 15:0 16:0.57692308 17:0.0034400635 
10 1:0.11291949 2:0 3:0 4:0 5:0.0012905214 6:0.24910887 7:0.054119994 8:0.057035905 9:0 10:0 11:0 12:0 13:0 14:0 15:0.5 16:0.038461538 17:0.0023815824 
10 1:0.069758155 2:0.0054339724 3:0 4:0 5:0.00055858389 6:0.11190291 7:0.18478819 8:0.20056101 9:0 10:0 11:0 12:0 13:0 14:0 15:0 16:0.038461538 17:0.0018523419 
10 1:0.044911205 2:0 3:0 4:0 5:0.0018041618 6:0.16250879 7:0.24427133 8:0.40345863 9:0 10:0 11:0 12:0 13:0 14:0.23529412 15:0 16:0.19230769 17:0.0023815824 
10 1:0.09313715 2:0 3:0 4:0 5:0.00063135004 6:0.29330057 7:0.067771982 8:0.12061711 9:0 10:0 11:0 12:0 13:0 14:0 15:0.25 16:0.076923077 17:0.0021169622 
10 1:0.025700864 2:0.035918947 3:0.0067726347 4:0.00051415873 5:0.00022899757 6:0.08054171 7:0.18332548 8:0.29873773 9:0 10:0 11:0 12:0 13:0 14:0.11764706 15:0 16:0.11538462 17:0.31754432 
10 1:0.030234839 2:0 3:0 4:0 5:0.0023798627 6:0.33499691 7:0.41101942 8:0 9:0 10:0.041719448 11:0 12:0 13:0 14:0 15:0 16:0.038461538 17:0.0031754432 
8.180501875547922 1:0.012974341 2:0 3:0 4:0 5:0 6:0.42622849 7:0 8:0.019167826 9:0 10:0.10745944 11:0 12:0 13:0.2 14:0.17647059 15:0 16:0 17:0.0013231013 
10 1:0.02621348 2:0 3:0 4:0 5:0.00067415297 6:0.35138892 7:0.25451024 8:0.15100505 9:0 10:0 11:0 12:0 13:0.2 14:0 15:0 16:0.038461538 17:0.0044985446 
7.852255622931311 1:0.016681291 2:0 3:0 4:0 5:0.0017677832 6:0.38310807 7:0.063871247 8:0.0093501543 9:0 10:0 11:0 12:0 13:0.2 14:0 15:0.5 16:0.30769231 17:0.0023815824 
10 1:0.050043872 2:0 3:0 4:0 5:0.0012070549 6:0.099429722 7:0.21550494 8:0.10098177 9:0 10:0 11:0 12:0 13:0 14:0.29411765 15:0.25 16:0.26923077 17:0.0026462027 
10 1:0.010641512 2:0 3:0.002016665 4:0 5:1.498122e-05 6:0.14183874 7:0.076548198 8:0 9:0 10:0 11:0 12:0 13:0.2 14:0 15:0.5 16:0.038461538 17:0.12172532 
0.355254098611874 1:0.23353807 2:0 3:1 4:1 5:0.0011214477 6:0.34426205 7:0.18625089 8:0.34876017 9:0.022700488 10:0.0037926771 11:1 12:0 13:0 14:0.17647059 15:0 16:0.076923077 17:0.0058216459 
0.4160312559776764 1:0.07395767 2:0 3:0.50884268 4:0.022976984 5:5.7784541e-05 6:0.015324301 7:0.019015133 8:0 9:0 10:0 11:0 12:0 13:0 14:0.11764706 15:0.25 16:0.038461538 17:0.036782218 
10 1:0.12510968 2:0 3:0 4:0 5:0.00071909651 6:0.14611529 7:0.23695781 8:0.20009341 9:0 10:0 11:0 12:0 13:0 14:0 15:0 16:0.076923077 17:0.0021169622 
10 1:0.17862826 2:0 3:0 4:0 5:0.0023627457 6:0.44796832 7:0.042418374 8:0 9:0 10:0 11:0 12:0 13:0.2 14:0 15:0 16:0.076923077 17:0.0052924054 
10 1:0.065533618 2:0.42055022 3:0 4:0 5:0.00047297674 6:0.19280107 7:0.40029196 8:0.32070968 9:0 10:0 11:0 12:0 13:0.4 14:0.17647059 15:0 16:0.076923077 17:0.0026462027 
10 1:0.032079456 2:0 3:0 4:0 5:0.0012027749 6:0.13328565 7:0.039980634 8:0.10612426 9:0 10:0 11:0 12:0 13:0.4 14:0.17647059 15:0.5 16:0.11538462 17:0.0023815824 
10 1:0.023562323 2:0.014943439 3:0 4:0 5:0.0012498578 6:0.093727588 7:0.3778658 8:0.066386255 9:0 10:0 11:0 12:0 13:0 14:0 15:0 16:0.038461538 17:0.020111141 
-10 1:0.038700594 2:0 3:0 4:0 5:0.00075119903 6:0.18923721 7:0.034129824 8:0 9:0 10:0 11:0 12:0 13:0.4 14:0.17647059 15:0.5 16:0.11538462 17:0.0055570257 
-10 1:0.091747098 2:0 3:0 4:0 5:0.00068057348 6:0.045260196 7:0.26036105 8:0.064983731 9:0 10:0 11:0 12:0 13:0 14:0 15:0.25 16:0.038461538 17:0 
-10 1:0.070432079 2:0.10460407 3:0 4:0 5:0.0029940996 6:0.24198201 7:0.063871247 8:0.48340252 9:0 10:0 11:0 12:0 13:0.4 14:0 15:0.25 16:0 17:0.0037046838 
-10 1:0.04686642 2:0 3:0 4:0 5:0.00097377609 6:0.22558786 7:0.24037088 8:0 9:0 10:0 11:0 12:0 13:0 14:0 15:0.75 16:0.11538462 17:0.0044985446 
-10 1:0.027296597 2:0.038037926 3:0 4:0 5:0.00021829715 6:0.071275715 7:0.025841069 8:0.13090238 9:0 10:0 11:0 12:0 13:0 14:0.17647059 15:0.25 16:0.038461538 17:0.0047631649 
-10 1:0.049765795 2:0.046822875 3:0 4:0 5:8.3466559e-05 6:0.081254397 7:0.031691791 8:0.044880785 9:0 10:0 11:0 12:0 13:0 14:0.29411765 15:0 16:0.076923077 17:0.014818735 
-10 1:0.1014778 2:0.22913283 3:0 4:0 5:0.0033408068 6:0.046329333 7:0.43100871 8:0.39598036 9:0 10:0 11:0 12:0 13:0 14:0.11764706 15:0 16:0.038461538 17:0.0021169622 
-10 1:0.026690065 2:0 3:0 4:0 5:0.0006976944 6:0.2555237 7:0.11116539 8:0.038335764 9:0 10:0 11:0 12:0 13:0 14:0 15:0.25 16:0.076923077 17:0.00026462027 
-10 1:0.014114941 2:0.006896965 3:0 4:0 5:0.00099945811 6:0.11119023 7:0 8:0.10659187 9:0 10:0 11:0 12:0 13:0.4 14:0.11764706 15:0 16:0 17:0.0092617094 
-10 1:0.248286 2:0.17412364 3:0 4:0 5:0.002103781 6:0.70848061 7:0.57142815 8:0.29219355 9:0 10:0 11:0 12:0 13:0.4 14:0 15:0 16:0.38461538 17:0.017200318 
-5.189136991928129 1:0.39718653 2:0.021642224 3:0 4:0 5:0.0009930376 6:1 7:0.29692862 8:0 9:0 10:0 11:0 12:0 13:0.2 14:0 15:0 16:0.19230769 17:0.014289495 
-4.578940505631953 1:0.27927817 2:0.037692434 3:0.010536019 4:0 5:0.00016265321 6:0.24875178 7:0 8:0.25806452 9:0 10:0 11:0 12:0 13:0 14:0 15:0 16:0.038461538 17:1 
-10 1:0.04493189 2:0.022656196 3:0 4:0 5:0.00048795834 6:0.31432622 7:0.22525619 8:0.043478261 9:0 10:0 11:0 12:0 13:0 14:0 15:0 16:0.076923077 17:0.015347976 
-10 1:0.1034999 2:0.076754883 3:0 4:0 5:0.0008560677 6:0.21204554 7:0.08873719 8:0.26975231 9:0 10:0 11:0 12:0 13:0 14:0.41176471 15:0 16:0.076923077 17:0.010584811 
-10 1:0.098331871 2:0 3:0 4:0 5:0.0016457936 6:0.3567346 7:0.31496959 8:0.30715288 9:0 10:0 11:0 12:0 13:0.2 14:0 15:0 16:0.15384615 17:0.0089970892 
-7.68141506841905 1:0.09199982 2:0.092377651 3:0 4:0 5:0.0019710949 6:0.42801181 7:0.11214043 8:0.52968583 9:0 10:0 11:0 12:0 13:0 14:0.47058824 15:0 16:0.038461538 17:0.0076739878 
-10 1:0.060222295 2:0.17070966 3:0 4:0 5:0.0009887577 6:0.060228111 7:0.4007805 8:0.31884151 9:0 10:0 11:0 12:0 13:0 14:0.29411765 15:0 16:0.038461538 17:0.014554115 
-10 1:0 2:0 3:0 4:0 5:0.00015195151 6:0 7:0.11360313 8:0 9:0.00086674748 10:0 11:0 12:0 13:0 14:0.23529412 15:0 16:0.038461538 17:0.0076739878 
-10 1:0.1133472 2:0.38699622 3:0 4:0 5:0.0012049143 6:0.34034259 7:0.59190599 8:0.23048163 9:0 10:0 11:0 12:0 13:0.2 14:0 15:0 16:0.34615385 17:0.0195819 
-10 1:0.0083406453 2:0 3:0 4:0 5:0.00062706885 6:0.33499691 7:0.023403241 8:0.042543338 9:0 10:0 11:0 12:0 13:0.4 14:0 15:0.75 16:0.15384615 17:0.0021169622 
-10 1:0.11249178 2:0.38546302 3:0 4:0 5:0.0012091954 6:0.34568828 7:0.59239453 8:0.22674137 9:0 10:0 11:0 12:0 13:0.2 14:0 15:0 16:0.38461538 17:0.0195819 
-3.764052797063898 1:0.025021936 2:0 3:0 4:0 5:0.00081754467 6:0.11012109 7:0.15650917 8:0.19869088 9:0 10:0 11:0 12:0 13:0 14:0 15:1 16:0.038461538 17:0.00052924054 
-10 1:0.10008774 2:0.059773756 3:0 4:0 5:0.00054360229 6:0.15110474 7:0.14675792 8:0.029453015 9:0 10:0 11:0 12:0 13:0.2 14:0.17647059 15:0 16:0.11538462 17:0.00079386081 
