svm_type c_svc
kernel_type linear
nr_class 2
total_sv 12
rho 0.798057
label 1 -1
probA -0.96988
probB -0.738229
nr_sv 7 5
SV
6.194191845899313 1:0.00034340463 2:0.0015053849 3:0.042402827 4:0 5:0 6:0 7:0 8:0 9:0.5 10:0 11:0.33333333 12:0 13:0.28571429 
0.2294513078896958 1:0.027325352 2:0.0056829913 3:0.795053 4:0.0978263 5:0 6:0 7:0 8:0 9:0.25 10:0.3 11:0.16666667 12:0.083333333 13:0.28571429 
10 1:0.017023154 2:0.00068921238 3:0.19787986 4:0.24673945 5:0 6:0 7:0 8:0 9:0 10:0 11:0.16666667 12:0.083333333 13:0.14285714 
3.395800480569052 1:0.049597821 2:0.0036576501 3:0.27444028 4:0 5:0 6:0 7:0 8:0 9:0.25 10:0 11:0.33333333 12:0.5 13:0.28571429 
5.228155814317528 1:0.0028453581 2:0.0012877389 3:0.32626643 4:0.061956656 5:0 6:0 7:0 8:0 9:0 10:0 11:0.5 12:0.041666667 13:0.57142857 
10 1:0.017023154 2:0.00068921238 3:0.19787986 4:0.24673945 5:0 6:0 7:0 8:0 9:0 10:0.4 11:0.33333333 12:0.125 13:0 
5.737892075798541 1:0.035321918 2:0.0016988468 3:0.17903392 4:0.30978328 5:0 6:0 7:0 8:0 9:0.5 10:0.2 11:0.5 12:0.25 13:0.28571429 
-10 1:0.014766473 2:0.0036153542 3:0.27090671 4:0.089130846 5:0 6:0 7:0 8:0 9:0 10:0 11:0.33333333 12:0.083333333 13:0.14285714 
-10 1:0.018004306 2:0.0012454176 3:0.48763251 4:0.36087013 5:0 6:0 7:0 8:0 9:0 10:0 11:0.5 12:0.125 13:0.28571429 
-10 1:0.059850862 2:0.011994726 3:0 4:0.20000065 5:0 6:0 7:0 8:0 9:0.5 10:0 11:0.5 12:0.041666667 13:0 
-0.7854915244741306 1:0.012804169 2:0.0051146813 3:0.70553569 4:0.064130552 5:0.72727273 6:0.0018306748 7:0 8:0 9:0 10:0.2 11:0 12:0.16666667 13:0 
-10 1:0 2:0 3:0.035335689 4:0.18695715 5:0 6:0 7:0 8:0 9:0 10:0.3 11:0.16666667 12:0.16666667 13:0 
